2.228591591119766235e-01 3.440955653786659241e-02 -2.956690192222595215e-01 2.352244704961776733e-01 -1.384419649839401245e-01 -5.287294462323188782e-02 2.424936294555664062e-01
2.783789336681365967e-01 -2.486119419336318970e-01 -3.346158564090728760e-01 -1.432155817747116089e-01 -7.722168415784835815e-02 -1.049469411373138428e-01 1.532230898737907410e-02
-1.054452955722808838e-01 -2.635124325752258301e-01 -2.996701598167419434e-01 -2.648019790649414062e-02 3.762111961841583252e-01 7.863333821296691895e-02 -3.702571392059326172e-01
-4.030445218086242676e-02 -3.335709571838378906e-01 -7.045966386795043945e-02 -1.352456957101821899e-01 3.338516056537628174e-01 8.873939514160156250e-02 -1.018086373805999756e-01
1.818315088748931885e-01 1.760293096303939819e-01 -4.692137837409973145e-01 -2.162714675068855286e-02 1.512624621391296387e-01 -5.637009441852569580e-02 -2.086598575115203857e-01
2.666045725345611572e-02 -2.136148065328598022e-01 2.029283195734024048e-01 2.716089971363544464e-02 -2.170091718435287476e-01 1.447456628084182739e-01 -2.967464327812194824e-01
-1.512309014797210693e-01 -2.240679264068603516e-01 3.115431368350982666e-01 -2.299881428480148315e-01 -2.728620893321931362e-04 3.380835056304931641e-01 2.126388698816299438e-01
-1.362400949001312256e-01 2.278904020786285400e-01 2.134837210178375244e-01 1.724250614643096924e-01 2.381246387958526611e-01 -2.574535608291625977e-01 3.229088485240936279e-01
-2.464316338300704956e-01 -1.616793572902679443e-01 1.564044058322906494e-01 -2.178332805633544922e-01 -2.455363720655441284e-01 2.271010875701904297e-01 -8.443178236484527588e-02
-1.797147095203399658e-01 1.248494088649749756e-01 3.694401085376739502e-01 3.223738968372344971e-01 -3.257156014442443848e-01 3.116210401058197021e-01 -1.487931609153747559e-01
-1.422889381647109985e-01 7.857924699783325195e-02 1.708627641201019287e-01 -2.907742857933044434e-01 2.093479335308074951e-01 -9.174174070358276367e-02 1.277525126934051514e-01
1.137225031852722168e-01 4.213592410087585449e-02 2.040346562862396240e-01 8.398273587226867676e-02 3.754161894321441650e-01 2.319181263446807861e-01 -2.063872963190078735e-01
-7.765068113803863525e-02 -2.304950654506683350e-01 -1.235246658325195312e-01 -1.600437611341476440e-01 2.709462642669677734e-01 -2.856395542621612549e-01 -1.525269150733947754e-01
1.817295253276824951e-01 1.795014441013336182e-01 -3.302663564682006836e-03 -2.160384804010391235e-01 8.141961693763732910e-02 2.068299055099487305e-02 5.544373393058776855e-02
-3.279034495353698730e-01 -1.684837937355041504e-01 -1.285760998725891113e-01 -1.258324980735778809e-01 -2.198462337255477905e-01 -3.520264923572540283e-01 -2.634657025337219238e-01
-8.380267024040222168e-02 1.374891400337219238e-02 3.053536117076873779e-01 -8.310848474502563477e-02 -1.047469973564147949e-01 -2.205056846141815186e-01 7.957378029823303223e-02
3.047901950776576996e-02 -2.466942369937896729e-01 -1.714233160018920898e-01 -1.904136091470718384e-01 -4.143298137933015823e-03 1.073350906372070312e-01 -1.923960149288177490e-01
-3.765944242477416992e-01 2.820951640605926514e-01 3.531976640224456787e-01 -3.057824969291687012e-01 2.582999765872955322e-01 -2.540453076362609863e-01 1.244377791881561279e-01
-1.829834133386611938e-01 1.500514447689056396e-01 -9.541252255439758301e-02 -3.491320013999938965e-01 -3.145963549613952637e-01 -3.418906629085540771e-01 -1.716687232255935669e-01
3.247887790203094482e-01 1.140373721718788147e-01 2.709656655788421631e-01 1.993369758129119873e-01 3.067426085472106934e-01 -1.909497939050197601e-02 3.474079370498657227e-01
2.046411186456680298e-01 2.130695879459381104e-01 -2.247484922409057617e-01 2.658704817295074463e-01 -3.077492490410804749e-02 3.014021180570125580e-02 -1.788792759180068970e-01
-2.390123456716537476e-01 1.307065933942794800e-01 -2.187900841236114502e-01 3.394203633069992065e-02 -3.039301931858062744e-01 4.327559098601341248e-02 -1.025032624602317810e-01
-2.866736948490142822e-01 1.069475039839744568e-01 -2.046961933374404907e-01 -1.577951014041900635e-01 -1.194267272949218750e-01 1.361988335847854614e-01 2.194343805313110352e-01
-9.172201156616210938e-02 -3.127017617225646973e-01 -2.441745698451995850e-01 -2.782272100448608398e-01 3.256647884845733643e-01 1.392736136913299561e-01 3.371767699718475342e-01
-1.133129894733428955e-01 3.553864359855651855e-02 1.169924437999725342e-01 -2.499003857374191284e-01 -2.087652683258056641e-01 -1.477086544036865234e-02 1.872577965259552002e-01
-2.784692347049713135e-01 -2.632020711898803711e-01 -1.835760772228240967e-01 -2.683892548084259033e-01 5.050582811236381531e-02 1.150967627763748169e-01 -2.680036425590515137e-01
-1.350741535425186157e-01 3.340320885181427002e-01 -6.219148635864257812e-04 3.217041492462158203e-02 2.252757847309112549e-01 4.247128963470458984e-02 9.557938575744628906e-02
-1.664115488529205322e-01 1.490800380706787109e-01 4.309205804020166397e-03 1.477106958627700806e-01 -3.217439353466033936e-01 -2.525427341461181641e-01 -1.310198456048965454e-01
1.285920664668083191e-02 -3.058361113071441650e-01 9.218499809503555298e-02 -3.634226620197296143e-01 -1.010534837841987610e-01 1.367188692092895508e-01 2.426758706569671631e-01
-2.036830037832260132e-01 -4.092287719249725342e-01 4.375452920794487000e-02 1.542823910713195801e-01 1.008793190121650696e-01 1.991770118474960327e-01 7.389011979103088379e-02
1.397976279258728027e-02 3.247213065624237061e-01 1.508346199989318848e-02 2.680982053279876709e-01 -1.063629388809204102e-01 8.287519216537475586e-02 3.106160461902618408e-01
-8.572050184011459351e-02 3.408218324184417725e-01 -2.192434817552566528e-01 1.544239115901291370e-03 -1.876510530710220337e-01 2.805844247341156006e-01 3.943766951560974121e-01
