1.193743646144866943e-01 -6.027633324265480042e-02 -1.511603593826293945e-03 4.261621832847595215e-02 -2.360871806740760803e-02 -6.326530873775482178e-02 -3.503336384892463684e-02 -8.683142066001892090e-02 1.172692924737930298e-01 -1.314192861318588257e-01 -1.273241639137268066e-01 1.232476681470870972e-01 -3.533120080828666687e-02 -1.678569465875625610e-01 -5.299688130617141724e-02 -8.587618172168731689e-02 4.886336997151374817e-02 -1.257525384426116943e-01 -2.700993418693542480e-02 5.565297603607177734e-02 2.352064708247780800e-03 -2.670039050281047821e-02 5.361084640026092529e-02 -1.409400999546051025e-02 3.268711268901824951e-02 8.271018974483013153e-03 1.268636137247085571e-01 -5.236355215311050415e-02 -2.764863334596157074e-02 -4.546985775232315063e-02 1.022755354642868042e-01 -1.053800210356712341e-01
-1.763765700161457062e-02 -3.975817188620567322e-02 2.974902093410491943e-02 1.112060695886611938e-01 1.397154629230499268e-01 -5.927981436252593994e-02 -1.452593207359313965e-01 4.436635971069335938e-02 9.030291438102722168e-02 1.592185050249099731e-01 8.403308689594268799e-02 1.620698124170303345e-01 -1.144789308309555054e-01 -7.953868806362152100e-02 1.548824757337570190e-01 -4.828356206417083740e-02 -6.969817727804183960e-02 -3.856544196605682373e-02 1.648931652307510376e-01 5.684602539986371994e-03 -1.701724529266357422e-01 1.032234132289886475e-01 -1.434123367071151733e-01 1.072500199079513550e-01 -1.544146239757537842e-01 -2.207741700112819672e-02 8.517853915691375732e-02 -6.018576771020889282e-02 9.052592515945434570e-02 7.614745944738388062e-02 -1.388806402683258057e-01 -1.993830874562263489e-02
-5.725139379501342773e-02 -4.955156147480010986e-02 1.037820726633071899e-01 1.701575964689254761e-01 -8.957497775554656982e-02 -3.997427970170974731e-02 -1.212843805551528931e-01 1.981766521930694580e-02 1.256232112646102905e-01 7.862167060375213623e-02 -5.395933985710144043e-03 -1.651678234338760376e-01 1.439388394355773926e-01 -3.848706185817718506e-02 8.988292515277862549e-02 -1.148606836795806885e-02 6.707093864679336548e-02 -2.662582695484161377e-02 -1.754512339830398560e-01 2.499374747276306152e-02 1.287993043661117554e-01 -6.703079491853713989e-02 -6.905097514390945435e-02 1.323141604661941528e-01 -7.324574142694473267e-02 -6.309654563665390015e-02 -3.318594396114349365e-02 2.729707630351185799e-03 5.719221010804176331e-02 3.858119994401931763e-02 8.784905076026916504e-03 1.488558053970336914e-01
